digraph Tree {
node [shape=box, style="filled, rounded", color="black", fontname=helvetica] ;
edge [fontname=helvetica] ;
0 [label="no. of major vessels <= 0.5\ngini = 0.48\nsamples = 100.0%\nvalue = [0.4, 0.6]\nclass = disease", fillcolor="#bddff6"] ;
1 [label="cholesterol <= 263.5\n0.32\n62.3%\n[0.2, 0.8]\ndisease", fillcolor="#6ab6ec"] ;
0 -> 1 [labeldistance=2.5, labelangle=45, headlabel="True"] ;
2 [label="cholesterol <= 202.0\n0.23\n44.2%\n[0.13, 0.87]\ndisease", fillcolor="#57ace9"] ;
1 -> 2 ;
3 [label="max_heart_rate_achieved <= 130.5\n0.44\n8.4%\n[0.33, 0.67]\ndisease", fillcolor="#9ccef2"] ;
2 -> 3 ;
4 [label="age <= 50.5\n0.49\n3.2%\n[0.56, 0.44]\nno disease", fillcolor="#fae6d7"] ;
3 -> 4 ;
5 [label="0.0\n1.9%\n[1.0, 0.0]\nno disease", fillcolor="#e58139"] ;
4 -> 5 ;
6 [label="0.0\n1.3%\n[0.0, 1.0]\ndisease", fillcolor="#399de5"] ;
4 -> 6 ;
7 [label="sex_male <= 0.5\n0.2\n5.2%\n[0.11, 0.89]\ndisease", fillcolor="#52a9e8"] ;
3 -> 7 ;
8 [label="0.0\n1.9%\n[0.0, 1.0]\ndisease", fillcolor="#399de5"] ;
7 -> 8 ;
9 [label="0.28\n3.2%\n[0.17, 0.83]\ndisease", fillcolor="#61b1ea"] ;
7 -> 9 ;
10 [label="slope_flat <= 0.5\n0.16\n35.7%\n[0.09, 0.91]\ndisease", fillcolor="#4ba6e7"] ;
2 -> 10 ;
11 [label="resting_blood_pressure <= 139.0\n0.29\n18.8%\n[0.18, 0.82]\ndisease", fillcolor="#63b2eb"] ;
10 -> 11 ;
12 [label="0.12\n14.3%\n[0.06, 0.94]\ndisease", fillcolor="#46a4e7"] ;
11 -> 12 ;
13 [label="0.47\n4.5%\n[0.62, 0.38]\nno disease", fillcolor="#f5cdb0"] ;
11 -> 13 ;
14 [label="0.0\n16.9%\n[0.0, 1.0]\ndisease", fillcolor="#399de5"] ;
10 -> 14 ;
15 [label="exercise_induced_angina_yes <= 0.5\n0.46\n18.2%\n[0.36, 0.64]\ndisease", fillcolor="#a6d3f3"] ;
1 -> 15 ;
16 [label="oldpeak <= 1.7\n0.32\n14.3%\n[0.2, 0.8]\ndisease", fillcolor="#6ab6ec"] ;
15 -> 16 ;
17 [label="thalassemia_fixed defect <= 0.5\n0.26\n13.6%\n[0.15, 0.85]\ndisease", fillcolor="#5caeea"] ;
16 -> 17 ;
18 [label="0.46\n4.5%\n[0.36, 0.64]\ndisease", fillcolor="#aad5f4"] ;
17 -> 18 ;
19 [label="0.09\n9.1%\n[0.05, 0.95]\ndisease", fillcolor="#42a2e6"] ;
17 -> 19 ;
20 [label="0.0\n0.6%\n[1.0, 0.0]\nno disease", fillcolor="#e58139"] ;
16 -> 20 ;
21 [label="thalassemia_fixed defect <= 0.5\n0.18\n3.9%\n[0.9, 0.1]\nno disease", fillcolor="#e88f4f"] ;
15 -> 21 ;
22 [label="0.0\n3.2%\n[1.0, 0.0]\nno disease", fillcolor="#e58139"] ;
21 -> 22 ;
23 [label="0.0\n0.6%\n[0.0, 1.0]\ndisease", fillcolor="#399de5"] ;
21 -> 23 ;
24 [label="thalassemia_fixed defect <= 0.5\n0.42\n37.7%\n[0.7, 0.3]\nno disease", fillcolor="#f0b78d"] ;
0 -> 24 [labeldistance=2.5, labelangle=-45, headlabel="False"] ;
25 [label="fasting_blood_sugar_lower than 120mg/ml <= 0.5\n0.2\n21.4%\n[0.89, 0.11]\nno disease", fillcolor="#e89152"] ;
24 -> 25 ;
26 [label="0.0\n5.2%\n[1.0, 0.0]\nno disease", fillcolor="#e58139"] ;
25 -> 26 ;
27 [label="age <= 67.5\n0.26\n16.2%\n[0.85, 0.15]\nno disease", fillcolor="#ea975c"] ;
25 -> 27 ;
28 [label="restecg_normal <= 0.5\n0.19\n15.6%\n[0.89, 0.11]\nno disease", fillcolor="#e89050"] ;
27 -> 28 ;
29 [label="0.41\n6.5%\n[0.71, 0.29]\nno disease", fillcolor="#efb388"] ;
28 -> 29 ;
30 [label="0.0\n9.1%\n[1.0, 0.0]\nno disease", fillcolor="#e58139"] ;
28 -> 30 ;
31 [label="0.0\n0.6%\n[0.0, 1.0]\ndisease", fillcolor="#399de5"] ;
27 -> 31 ;
32 [label="slope_upsloping <= 0.5\n0.5\n16.2%\n[0.48, 0.52]\ndisease", fillcolor="#eef6fd"] ;
24 -> 32 ;
33 [label="chest_pain_type_atypical angina <= 0.5\n0.46\n12.3%\n[0.36, 0.64]\ndisease", fillcolor="#aad5f4"] ;
32 -> 33 ;
34 [label="age <= 66.5\n0.5\n8.4%\n[0.48, 0.52]\ndisease", fillcolor="#f0f7fd"] ;
33 -> 34 ;
35 [label="0.47\n6.5%\n[0.63, 0.37]\nno disease", fillcolor="#f4caac"] ;
34 -> 35 ;
36 [label="0.0\n1.9%\n[0.0, 1.0]\ndisease", fillcolor="#399de5"] ;
34 -> 36 ;
37 [label="0.0\n3.9%\n[0.0, 1.0]\ndisease", fillcolor="#399de5"] ;
33 -> 37 ;
38 [label="max_heart_rate_achieved <= 147.0\n0.3\n3.9%\n[0.82, 0.18]\nno disease", fillcolor="#eb9d65"] ;
32 -> 38 ;
39 [label="0.0\n1.9%\n[1.0, 0.0]\nno disease", fillcolor="#e58139"] ;
38 -> 39 ;
40 [label="restecg_normal <= 0.5\n0.48\n1.9%\n[0.6, 0.4]\nno disease", fillcolor="#f6d5bd"] ;
38 -> 40 ;
41 [label="0.44\n1.3%\n[0.33, 0.67]\ndisease", fillcolor="#9ccef2"] ;
40 -> 41 ;
42 [label="0.0\n0.6%\n[1.0, 0.0]\nno disease", fillcolor="#e58139"] ;
40 -> 42 ;
}